svm_type one_class
kernel_type rbf
gamma 0.5
nr_class 2
total_sv 20
rho 8.21631 
SV 
0.4718824848544558 1:-0.944444 2:-0.25 3:-0.864407 4:-0.91666698 
1 1:-1 2:-0.166667 3:-0.966102 4:-1 
0.9020922375318028 1:-0.166667 2:0.66666698 3:-0.93220299 4:-0.91666698 
1 1:-0.222222 2:1 3:-0.83050799 4:-0.75 
0.2475513023459627 1:-0.83333302 2:0.33333299 3:-1 4:-0.91666698 
0.2491802585805245 1:-0.5 2:0.75 3:-0.83050799 4:-1 
1 1:-0.33333299 2:0.83333302 3:-0.864407 4:-0.91666698 
1 1:-0.88888901 2:-0.75 3:-0.898305 4:-0.83333302 
0.458076221504764 1:0.5 3:0.254237 4:0.083333299 
1 1:-0.61111099 2:-1 3:-0.152542 4:-0.25 
1 1:-0.055555601 2:-0.83333302 3:0.0169491 4:-0.25 
0.763241056415818 1:0.111111 2:0.083333299 3:0.694915 4:1 
1 1:-0.66666698 2:-0.58333302 3:0.186441 4:0.33333299 
0.1704496544220868 1:0.61111099 2:0.33333299 3:0.72881299 4:1 
1 1:-0.166667 2:-0.33333299 3:0.38982999 4:0.91666698 
1 1:0.88888901 2:0.5 3:0.93220299 4:0.75 
1 1:0.88888901 2:-0.5 3:1 4:0.83333302 
0.0555562271077046 1:-0.055555601 2:-0.83333302 3:0.355932 4:0.166667 
0.6819705572368808 1:0.88888901 2:-0.33333299 3:0.93220299 4:0.58333302 
1 1:1 2:0.5 3:0.83050799 4:0.58333302 
